// block3_pointwise weights (int8)
#ifndef BLOCK3_POINTWISE_WEIGHTS_H
#define BLOCK3_POINTWISE_WEIGHTS_H

#include <stdint.h>

static const int8_t block3_pointwise_weights[4096] = {
-1, -30, 127, -59, -19, -32, -84, -33, 58, 1, 91, 14, -32, -35, 0, 52, 
-38, -43, -7, -94, -25, -60, 19, -75, 13, 55, -77, -29, -15, -50, -23, -43, 
8, 46, -24, -9, 62, 127, 31, -33, 13, -41, 103, 27, -6, 66, -3, -25, 
5, 12, 50, 62, 91, 30, -14, 80, -1, -8, -37, 94, 41, 11, 55, -49, 
-48, -4, 58, 12, 1, -1, 4, 9, 9, -11, 16, -14, -127, 17, 5, 44, 
24, 50, -34, 1, 28, 62, 87, 8, -49, -25, 18, -1, 77, -45, 23, -20, 
114, -10, 14, 46, 7, -65, -65, -127, -36, 71, -3, -40, -30, 25, 27, -13, 
-53, -12, -60, -30, -65, -17, -35, 58, 5, 31, -2, -92, 4, -39, -33, 10, 
96, 94, -18, -67, 20, 31, 31, -27, 28, 127, 55, -47, -32, 72, -55, -85, 
20, -37, 82, 17, 49, -22, 87, -49, 4, -111, 74, -33, 66, 37, 14, -30, 
-30, -35, -29, 48, 50, 68, -54, 51, -11, 18, -24, -32, -42, 3, -43, -20, 
12, 14, 8, -63, -43, -23, -1, -35, 8, 34, 36, -61, 16, -24, -15, 127, 
59, -72, -51, -93, 127, -18, 20, -50, -9, -28, 8, -13, -24, 62, 70, 19, 
20, 1, 18, -70, 36, -40, 15, 22, -43, 1, 32, -53, 45, -14, 29, -32, 
36, -22, -28, -69, 26, 9, -74, -123, -47, 32, -100, 13, 18, 2, -9, -22, 
-27, 34, -37, -46, -128, 30, 50, 123, 44, 29, 12, 102, -8, -52, 8, 109, 
-55, 79, 15, -49, -22, 20, -65, -11, 44, -53, -69, -43, 22, -5, 22, 19, 
-14, 86, 27, 14, -19, 53, -13, 57, 36, 21, 78, 79, 6, -76, 66, 127, 
-55, -39, 34, 63, 16, 2, 24, 118, -85, -128, 104, 80, 93, 38, 89, -68, 
-38, 43, 122, 88, -5, -28, -75, 9, -63, -40, -70, -47, -4, 85, 109, -119, 
-67, -16, 14, -20, -121, -42, -34, -123, -54, -24, -91, -34, 28, -6, -9, -3, 
-127, 12, -44, -43, -121, -16, 24, 46, 125, 45, -5, 42, 8, -2, -49, 102, 
13, -54, -42, 18, 41, 33, 14, -2, 7, 8, 42, -55, -128, 30, 77, -21, 
9, 84, -60, 86, 15, 4, 53, 97, -43, -59, 94, -88, -51, 54, -93, 17, 
-37, -11, 18, 54, -4, -85, -97, 13, 59, -30, 71, -18, -3, 12, -3, 45, 
-6, 127, -35, 4, 101, 29, -19, -24, -34, -79, 5, 25, 90, -39, 35, -62, 
-16, 20, 19, -18, -16, -13, 12, 50, 8, -13, 37, -25, 32, 1, 9, 31, 
41, 37, 8, 23, -7, -127, -16, -83, -28, -22, -27, 6, 13, -9, 27, 19, 
14, 95, 112, 9, 30, 17, -102, -4, -1, -11, -15, 20, -32, -6, -25, 29, 
55, -52, 33, -19, -12, -23, 30, -26, -4, 11, 65, 30, 1, 29, -127, 14, 
-45, -32, 56, 42, 17, -30, 46, -20, 12, -20, -5, -34, 9, 37, 11, -3, 
-49, -23, -1, -67, 12, 20, -31, -43, -16, 20, 46, -22, 43, -5, -32, 127, 
1, 127, 56, 36, 19, 15, -64, 62, -103, 11, -60, 18, -32, 57, -55, -14, 
116, 24, -107, -11, 11, -103, 12, -62, 53, -2, -31, -116, -51, 28, 0, -14, 
120, 21, 3, -19, -22, -39, -22, -110, 23, 36, -23, -12, -25, -15, -42, 79, 
-41, 21, -85, -55, -82, -21, -33, 113, 15, -8, -90, 7, 16, -127, -43, -18, 
27, -6, 127, -68, 58, -28, -45, -85, -37, -69, -97, -5, -54, -57, 4, 11, 
2, -64, 3, 0, 45, 117, 34, 57, 72, 88, -16, 47, -25, -21, 24, 75, 
9, 28, 60, 72, -17, -67, -28, -3, 3, -20, 30, -15, -118, -3, -33, 46, 
-38, 63, -64, 80, -23, 10, 127, 24, -43, -104, 11, 8, -23, 18, -97, 24, 
102, -27, -92, 17, 6, -41, -13, -80, -47, 127, -7, 37, -21, -18, 59, -43, 
-61, 7, -72, 66, -91, 61, -89, 90, 21, 10, 0, -30, -50, -71, -15, -15, 
9, -35, 25, -4, 36, -32, 29, -34, -107, -87, 77, -70, 46, 77, -36, 127, 
-6, -78, 118, -35, -45, -68, -47, -5, 14, -40, 24, -123, 49, -74, 28, -57, 
18, 44, 56, -12, -9, 5, 26, 117, 1, -35, -48, -47, 32, 25, 64, -15, 
16, 16, -27, -1, 18, -93, -72, -15, 25, 39, -29, 48, 18, -128, 27, -31, 
-21, -5, 2, 52, -1, -22, 16, 110, -31, -57, 27, 36, 34, -50, 32, -24, 
-39, 48, 39, 58, 9, 37, 30, 0, -7, -32, -76, -18, -51, 15, 10, -128, 
-54, 70, 37, 21, -21, 23, 41, 88, -39, -22, 43, -37, -111, 112, 32, -21, 
57, -16, 62, -58, -5, -27, 0, -90, 64, -9, 5, -28, 6, -119, 77, -127, 
6, 22, 87, 20, -20, -85, -11, -34, -64, -78, 5, -31, -78, 20, 69, 109, 
-127, -105, 30, -29, -28, 14, 53, -73, 59, 60, -10, -16, 23, 15, -33, 78, 
-7, -126, -37, 3, 91, 6, 31, 127, 20, -16, -24, -29, 3, -1, 96, -49, 
-7, 28, -49, -49, 9, -39, -59, -32, -54, 71, -3, 1, 29, -64, -5, 34, 
27, -2, -23, 60, 5, 40, 107, 56, -12, -29, 1, 28, 24, 19, -5, 26, 
31, -45, 12, 61, -6, -21, -127, 33, 33, 33, -66, 66, -29, -26, -39, 9, 
-66, 76, 13, 6, 2, -5, 30, 55, -23, 13, 9, -36, -1, 49, -8, -13, 
43, 46, 79, -55, 9, 42, 7, 69, 75, -30, 5, 25, -36, -128, 18, 21, 
-65, 93, 11, 21, 12, -32, 10, 42, -24, 68, 57, 16, -110, 100, 16, -80, 
80, -11, 43, -71, -20, 73, 56, -18, 123, 5, -31, 3, 6, -127, 59, -71, 
127, 31, -66, 50, -4, -26, 10, 6, 9, 19, -11, 41, -24, -64, -12, 5, 
54, -40, 57, 49, -1, 39, -25, 9, 38, 53, 22, 12, -30, 36, -61, 52, 
88, 36, 4, -76, 3, 8, 27, -114, 33, 8, 101, 22, -55, -103, 42, 115, 
-2, -87, 13, 74, 10, 127, -50, 77, 8, 127, -114, 76, -45, -109, -23, 3, 
28, 22, 38, 7, -45, 0, 25, 127, -77, -116, 18, 42, 55, -40, 49, -10, 
38, -31, 61, 34, 16, -116, -5, -46, -2, -37, -77, -84, -33, 60, 60, -96, 
-6, 2, 51, 33, 2, 33, 69, -31, -30, 18, 29, -61, -127, 53, -3, 6, 
62, -15, -40, 48, 26, -26, 61, 5, -51, -92, 15, -17, -15, 1, -46, -41, 
0, -46, 81, 8, 84, -44, -35, 29, 57, -34, -43, -52, 4, 35, -72, 62, 
73, 111, -96, -5, 50, -9, 107, -6, -94, -128, 50, 6, 31, -38, -79, -42, 
21, 55, -4, -32, 52, 10, 83, -8, -101, -16, -90, -14, -45, -13, 9, -8, 
85, -49, -6, 125, -10, 61, -3, 127, -6, 13, -57, 41, -21, -30, 32, 44, 
13, 61, 11, 7, -28, -6, 5, -41, -14, 65, -91, -11, 13, 4, -8, -53, 
-42, 9, 3, -47, 11, 127, 12, -2, 115, -16, 17, 3, 21, -33, 51, 20, 
60, 1, -114, 92, 18, -2, -85, -12, 22, 117, 37, -47, -47, -47, 80, -77, 
-38, 59, -101, 64, -9, -41, 127, 42, -24, -84, -4, -82, -5, 36, -31, 91, 
-66, 32, 20, -56, 30, 77, 49, 31, -9, 61, 1, -46, -127, 110, -38, -21, 
116, -20, -30, -42, 32, 25, 97, -11, -28, -99, 22, 53, -4, -23, 30, -16, 
-32, -54, 41, -28, 10, 98, -22, 29, 67, -37, 1, 7, 19, -30, -127, 43, 
44, -37, 12, 1, -31, -52, 41, -93, 11, -12, 53, 66, 69, 41, -107, 61, 
-27, 7, 81, 8, 12, -14, -7, -11, -16, -108, -85, -19, -17, -2, -1, 17, 
-56, -70, 74, 56, -1, 118, 44, 61, 55, 45, 75, 127, 39, 10, -40, 101, 
41, -30, -65, 94, -25, -39, -128, 92, 63, 10, 71, 31, 27, -113, 47, -49, 
84, 16, -42, 66, 80, -86, -36, 18, 2, 22, 38, 32, 49, 60, -11, 20, 
127, 11, -19, -72, 23, 2, 69, -19, -67, -30, -28, -27, -40, 84, 61, -9, 
-7, -61, 58, -54, -16, 62, 59, 41, -14, 5, 21, -26, 6, -35, -15, 16, 
25, -45, 37, -57, 43, -30, 26, 12, -127, -53, -6, -7, 8, 19, 41, 21, 
26, 59, 9, 35, 61, -16, 105, 27, -16, 13, 21, -83, -26, -33, 69, 56, 
-86, -121, -51, -14, 19, 122, 100, -9, -87, -2, 21, 61, 82, 27, -11, 53, 
50, -75, 0, -59, -73, -102, -127, -115, 30, 79, -55, 33, -9, -77, 33, 10, 
-8, -59, 5, 14, -5, -27, 35, 85, -59, -13, 9, -4, 101, -37, 25, 81, 
1, 39, -34, 124, 44, -128, -97, -10, 15, 19, -50, 67, -64, -107, 27, 56, 
31, -4, 69, -80, 58, 32, -42, -77, 14, -94, 23, -15, 24, 23, 9, 2, 
-92, -72, 127, -5, -119, 44, 30, 82, 2, 49, 61, -31, 26, 31, -44, 49, 
-32, 109, -8, 20, 4, 12, -15, -22, -39, 24, -6, 2, -118, 49, -5, -35, 
86, 60, 38, -39, 19, 17, 127, -38, 5, -59, 20, 14, 1, 26, 35, -32, 
95, 5, -54, -59, -37, 16, -71, -128, -43, 51, -85, 23, -1, -46, 21, 45, 
11, 97, -46, -22, -104, 37, 36, 107, -2, -43, 68, 20, -57, 7, 34, -23, 
86, 41, -85, 112, -67, -52, -89, 52, 66, 18, 70, 78, -14, -128, 95, -64, 
20, -23, -6, 81, 36, 44, -22, 99, 19, 78, 46, 37, 72, 74, -50, 28, 
-50, -66, 8, 37, 25, 13, 25, 88, 68, -37, -49, 35, 47, -20, -35, -60, 
33, 15, -109, 45, -33, -52, 127, -24, -18, -58, 22, 6, 39, 37, -38, -33, 
-3, -30, -32, -111, -19, 16, -28, 15, -113, -6, -20, -14, 34, -37, 21, 19, 
127, 93, -46, -5, -31, -111, -1, -49, -36, -34, -12, 34, -26, -38, 80, -2, 
-48, 6, 73, 58, 82, -36, 69, 52, -62, -58, 49, -18, -19, 10, -37, 34, 
29, -70, -78, -29, -51, -100, 35, -127, -45, 7, -55, 12, 63, 19, -128, 43, 
-61, -38, -7, 46, 20, 59, 43, 100, -6, 47, -67, 66, 53, -40, -21, 14, 
32, -35, 4, -40, -16, -21, 8, -127, -11, 87, -2, -27, -54, -3, -27, -21, 
-16, 29, 127, 50, -14, -11, -40, -48, -12, -42, 23, -10, -88, 3, -22, 91, 
-33, -13, 23, 51, -33, 10, 44, -28, 55, -43, 36, 12, -47, 6, -66, 63, 
18, 65, 75, 22, -81, 1, 61, -83, -19, -11, -92, 23, 18, 29, -42, -33, 
-114, -87, 40, -34, 70, 104, -5, -89, 127, 42, 19, 39, 83, 23, -17, 82, 
-45, -55, 98, -43, 11, -22, -12, 104, 32, -41, 15, -3, 81, -59, -74, 75, 
-48, -12, 127, -100, 11, -58, -65, -127, 24, 9, -61, 1, -5, -115, -23, -29, 
-24, -16, -96, 106, -11, 2, -24, 96, 20, 80, 14, 89, 10, -128, -28, -62, 
-79, 2, -40, 65, -14, 64, -9, -50, 1, 34, -29, 19, 80, 58, -74, -108, 
23, 7, -1, 48, -59, 127, 6, 89, -53, -27, 11, 52, 1, 45, 0, -64, 
-49, 19, 97, -1, -11, 36, 7, -8, 14, 10, -29, -51, 50, 0, 59, -57, 
51, -3, -34, 96, -8, -123, -123, 61, 21, 7, 41, 34, -13, -109, 53, -67, 
23, 120, -9, 127, 68, 109, 113, 104, -4, -2, 15, -15, -26, 14, -53, 33, 
18, 11, 17, 46, -63, -60, 9, 35, 6, 32, -6, -50, -61, 19, 33, -7, 
-5, 8, 27, 47, -4, 127, 88, 44, 42, -85, 65, -30, -21, -23, -43, -8, 
-34, 28, 65, -9, 56, 125, 26, -38, -34, -38, -29, -21, -40, -16, 22, 41, 
-1, -69, 44, 58, 0, 87, -45, 17, 47, 23, 32, 93, -127, 35, -60, 46, 
30, -13, 21, 85, -34, -127, -15, -12, -16, -55, -27, -27, -17, 42, -27, 82, 
25, 52, -13, 78, 8, -8, 85, 27, 33, -45, -6, 55, 16, -15, -80, -33, 
61, 82, 80, -10, 13, -62, 38, -55, 5, -71, 81, -28, -128, 39, 68, 86, 
-9, -56, 62, 30, -23, 11, 29, 36, 23, -3, -17, 27, -22, -40, -33, 44, 
61, 8, 60, -7, 26, -84, -59, -33, 5, -47, -68, -80, -10, 46, -67, 64, 
-14, 99, -26, -3, 49, 3, 43, -15, -45, -128, 39, -34, 60, -55, -9, -80, 
20, -37, -12, -12, -12, -16, 25, 45, 16, -22, 20, 10, 31, 11, 25, 31, 
44, 44, 17, -15, -4, -127, -36, -68, -51, -3, -24, -3, 16, -23, 17, 36, 
101, -71, -91, 12, -53, 30, 21, -79, -34, 96, -52, -67, 34, -24, 32, 34, 
-128, -23, 4, 52, -95, 3, -91, 56, 92, -32, -30, 96, -74, -115, -52, -26, 
44, 35, -58, 110, 32, -18, -92, 9, 7, 95, -25, 127, -61, -16, -46, -22, 
97, 5, -82, 31, -126, -83, 49, -31, -39, -6, 54, -1, 76, 36, -59, 0, 
-62, -25, -23, -23, 33, -60, 15, -21, -36, -20, -2, -8, -19, 33, 46, -51, 
-89, -32, 33, -51, 26, 29, -76, -55, 10, 41, 10, -23, -28, 26, -58, 127, 
-41, 39, -18, 44, 12, 7, 50, 127, 6, 36, -21, -76, 8, 34, 46, -45, 
39, 13, 21, -85, 23, 19, -26, -104, 23, -5, 47, 66, 31, -42, -46, -16, 
50, 11, 10, -2, 69, 3, -23, 72, 42, 29, 33, 10, 1, -29, 22, -6, 
72, 88, -27, 49, 99, 67, -12, -22, -104, -128, 49, 41, -34, -14, -8, -115, 
80, -73, -128, 29, 28, 29, 13, -31, 27, 52, -19, -4, 16, -9, 55, -55, 
-49, 56, 87, -57, -79, 51, 11, 32, 12, -70, 3, -20, -5, -49, 16, -39, 
118, -7, -66, 51, -30, -21, -43, 115, 79, 56, -46, 105, 22, -103, 51, -71, 
8, 16, 52, 22, 22, 50, -78, -43, -53, 28, 40, -127, 39, 83, -44, -43, 
-28, 22, -45, 38, -9, 127, 36, 53, -106, 17, -11, 126, 23, 12, -18, 10, 
19, -22, -42, 6, -92, 87, 11, -64, -23, -20, -70, 10, -58, 57, 1, -64, 
-30, 25, 81, 6, -101, -50, 10, 20, -65, -44, -24, -105, -128, -4, -17, 98, 
55, 92, -123, 101, 114, -21, 73, -17, -7, -91, 22, -77, -27, 12, -32, 26, 
8, 14, 37, 54, -11, -109, -128, 60, 41, -24, 39, -29, 2, 37, -12, 40, 
24, 104, -61, -10, 79, 24, 103, 13, -42, -116, 39, -31, 13, -29, -30, -25, 
-1, -9, -21, -20, -33, -30, 20, -38, -91, -66, -48, -21, -15, -21, -10, 72, 
4, -78, 19, 12, 5, -23, 79, 38, 19, 98, -40, 44, 95, 5, -1, 127, 
-56, 19, 2, 45, 0, 21, 5, 90, -58, 5, 90, 67, 30, -22, 7, -81, 
44, -40, 120, 18, -5, 53, 71, -53, 53, -26, -73, -56, -61, 86, 53, -128, 
12, 19, -32, -2, -33, -73, -47, -43, 58, 39, 58, -8, -3, -61, 97, -36, 
17, -16, -10, -122, -65, 0, 51, 54, 19, 78, -58, 18, 22, -128, -9, 52, 
75, -35, -48, -128, 5, -43, 47, -81, -12, -23, 39, -55, -6, 87, 79, 42, 
-8, -6, 7, -83, 40, 4, 5, 35, 0, 0, 26, -77, 68, -56, -46, -1, 
-51, 72, 46, -55, -14, -20, 8, -75, -9, -30, -80, 39, 1, 7, -19, -11, 
-42, -36, 31, 50, -41, 53, 18, -8, 107, 46, 23, 127, 30, -8, -44, 106, 
-63, -59, -22, 93, 51, 4, 44, -4, -2, 53, 26, -40, -28, 59, -19, -54, 
-93, -45, 0, -66, 7, 89, -13, -46, 62, 25, 48, 6, 76, -35, -34, 127, 
102, -12, -52, 127, 44, -2, -26, 4, 81, 28, -41, -120, -56, -14, -33, 56, 
-28, 126, -85, 47, 70, -82, 28, 76, -92, -95, 14, -91, 126, -68, -65, -3, 
127, -2, -2, 25, 22, -53, 53, -58, 33, -38, -24, -48, -39, -32, -78, 50, 
-10, 112, -6, 120, 80, 69, 66, 72, -64, -126, -47, 52, -30, -24, -98, 64, 
67, -3, 5, 30, 23, 100, -30, -8, -2, -34, 11, 37, -10, -12, -127, 66, 
-87, -32, 20, 46, -22, -63, 7, -89, -71, -2, 24, -33, 123, 121, -79, 78, 
-38, -13, 6, 61, 6, -12, 27, 127, -85, -62, 45, 76, 50, -5, 80, -60, 
-35, 10, 43, 37, -4, 0, -5, -10, 4, -7, -79, -37, -48, 35, 44, -106, 
32, -25, 13, 45, -37, -35, -59, 45, -105, 11, -20, -35, 62, -61, 62, -4, 
-33, 40, 39, -4, -52, -127, -18, -43, 40, -49, 13, 58, -91, -8, 8, 8, 
-14, 75, 15, 14, 1, 127, 73, 36, -22, 17, 22, -23, -69, -1, 69, 63, 
15, -55, 62, 105, 20, 26, -32, -23, 5, -23, 49, 113, -67, -40, 28, -24, 
-12, -34, -5, 35, 43, -6, 22, 48, 22, 2, 18, -79, 9, -30, 10, 1, 
-14, -93, 7, -128, 51, 6, 10, -56, -32, 41, 27, -40, 73, 3, -76, -11, 
-73, -101, 30, 31, 119, 91, 112, 123, -30, 41, 33, 33, 12, -16, 17, -95, 
-41, -61, 33, 117, 52, 127, -61, -85, -69, 71, -46, 37, -55, 26, -57, -34, 
-13, -36, 37, -15, 54, 13, 46, 3, -128, 0, 73, -57, -14, 2, 26, 31, 
58, 18, -5, 111, 86, -108, 17, -9, -40, -32, 39, -70, 0, -43, 85, 36, 
-49, -14, 68, -71, -35, -31, -33, 28, 39, -8, 127, 7, 38, -11, 21, 61, 
8, -24, -77, -53, -16, -110, -8, -17, 15, 43, -99, 41, 13, -47, -6, 39, 
40, -61, -49, -18, 127, -14, 7, -26, -1, 5, 5, -3, -27, 14, 34, -3, 
0, 7, 18, -34, -14, 4, -17, 14, -36, -9, 27, -74, 0, -5, -19, -12, 
-10, -34, -33, -70, -46, 0, -30, 17, -128, -61, 44, 71, -44, 14, -32, -45, 
-41, -69, 114, -110, 24, -33, 47, 5, 43, 50, -95, 24, 90, 9, 36, 33, 
-32, 22, 43, 62, -49, -35, 7, 54, 1, 106, 52, -20, -104, 44, 15, -23, 
57, 19, -9, 56, -27, -56, 127, 29, -7, -67, 50, -49, -25, -19, -40, 31, 
-28, 8, 59, 12, 19, -18, 42, 25, -68, -35, 27, -20, 1, 23, -11, 43, 
6, 34, -45, 54, 26, -128, -13, -17, 42, -26, -29, -43, -34, -46, 35, 39, 
20, 31, 69, 21, -15, -49, 29, 21, 15, 37, 5, -74, -87, 38, -38, 13, 
33, 52, -47, 6, -9, 79, 127, -21, -58, -93, 5, -98, 20, -19, -77, -16, 
-1, -127, 68, 32, 28, -70, -14, 6, -56, -60, -16, -7, -20, -7, -25, -25, 
-53, -18, -23, 11, 1, 20, 37, -1, -50, -43, 2, -32, 44, 7, -27, -22, 
67, 5, 44, -55, -5, -37, -9, 6, 13, -50, 5, -61, 17, -2, -52, 6, 
-1, 117, -63, 39, 19, 20, 62, 25, -36, -128, -44, 31, 9, -11, -35, 50, 
-28, -4, 68, 44, -40, 46, -37, -33, -37, 23, 109, -7, -128, 8, 59, 32, 
-40, -83, -44, 29, -48, 16, 30, 1, -27, 31, -24, -58, -37, 18, -49, -11, 
63, -13, 106, 74, -27, -54, -66, -41, 62, -86, 28, -6, -122, -43, -53, 86, 
-22, 89, -17, 60, -36, 0, 127, 24, -32, -96, 59, -18, -36, 33, -119, 82, 
47, 14, -36, 42, 25, -5, -98, 1, 84, 107, -44, -58, 52, -125, -45, -35, 
-68, 53, -46, 28, -55, 30, 25, -48, -16, 2, 21, -6, 127, -59, -27, 3, 
-61, -23, -60, -79, 24, 38, -55, 16, -76, 30, -84, 12, 77, 2, 45, -15, 
109, 32, -13, -63, -30, -127, -104, -51, 84, 25, 0, 91, -36, -60, 95, 36, 
19, -64, -64, -9, 80, 113, 81, 92, 21, 38, -43, -74, 2, -51, 37, -39, 
-25, -15, -13, -51, -22, -62, -128, -86, -42, 89, 7, -1, 36, 29, -76, 14, 
-10, 68, 4, 12, -43, 81, -9, 127, -15, 3, 8, -1, 26, 21, 70, -38, 
90, 24, 25, -38, 71, -16, -17, 16, 30, 19, 8, -52, -61, 29, 58, -25, 
-36, -15, 122, 91, -10, 14, -30, 38, -33, -78, 61, 31, -128, 118, -2, -111, 
-108, -106, 27, -33, -15, 14, -4, -43, 127, 72, 36, -25, -9, 32, -121, 98, 
-25, 43, -12, 69, -25, 3, -127, 54, -45, -36, 42, 32, -11, -5, 44, -48, 
67, 57, 23, -4, 2, 9, -17, 12, -36, 30, -24, 41, 39, 55, 40, 32, 
-28, -55, -42, 1, 36, 127, -21, 24, 18, -7, 99, 4, 8, 23, -34, 33, 
-67, -11, 25, 7, 15, 77, -31, 60, 3, 41, -8, 0, 7, -11, -17, -35, 
2, -36, 105, 38, 27, 2, 14, 110, -39, -88, -28, 75, -6, 72, 115, -114, 
-89, -20, 91, -50, -15, 127, -73, 0, 84, 39, 38, 25, -26, -50, -2, -21, 
79, -18, 6, 2, 66, -3, 53, -43, 32, -49, 23, -17, 39, 2, 3, 24, 
-33, -70, 66, 43, 21, 55, -128, 78, -1, 25, 54, -25, -2, -18, -17, -18, 
5, 47, -34, -50, 10, 10, 13, -17, 10, 127, 20, -6, -3, 34, -19, -15, 
59, 19, -37, -91, -28, 26, 112, 126, 41, -74, 16, 14, -70, -26, -8, -34, 
-35, 61, 42, 63, 21, 75, -74, -11, -2, -31, -41, -9, 7, 18, -88, -4, 
-50, -8, 6, -44, -45, 24, 127, -43, 35, 23, 20, 12, 89, 26, -24, -80, 
2, -11, -57, 13, 28, -4, 35, 54, -115, 8, 5, 53, -12, -76, 69, -30, 
75, -32, 76, 127, 69, 112, -11, 4, -3, -13, -47, 72, -34, -16, 101, -78, 
67, -42, 3, 28, 115, -57, 23, -66, -68, -4, -22, 11, 24, 31, -15, -15, 
-35, -60, -36, -127, -105, 36, 33, -63, -53, 8, -86, -80, 70, -54, -20, -38, 
-45, 2, 18, 32, 4, 4, 45, 127, -102, -58, 20, 81, 51, -1, 35, -58, 
-2, 25, 11, 45, 12, -117, -24, -71, 18, -32, -92, 15, -51, 48, 52, -98, 
94, 10, -94, 90, 4, -6, -29, 19, 42, 127, -83, 53, 22, -75, -10, -71, 
-28, 32, -92, 18, -69, 62, -28, -21, 11, 5, -14, 24, 71, -43, -24, 1, 
-13, 6, -31, 56, -54, -13, -128, -22, 53, 67, 17, 40, 23, -85, -3, -27, 
-11, -3, -10, 47, 50, -5, -7, 56, 43, 33, 33, 21, 30, 2, -16, 8, 
34, -85, -28, -11, 24, 57, 18, -68, 32, 2, -13, -32, -124, 46, -35, 70, 
-35, 45, 15, 35, -2, 127, 36, 72, 7, -46, 106, -32, 5, -44, -36, 29, 
-25, -6, 34, 27, 42, 25, 39, 127, 3, -66, 42, 60, -6, 70, 29, -52, 
-33, 57, 23, 12, 31, 33, -31, -16, 24, -12, -9, -32, -35, 1, 12, -33, 
-3, -57, -128, 50, -30, 49, 93, 44, -31, 3, -28, -26, 75, -58, 61, -27, 
-36, -20, 34, -12, -35, -40, -2, -92, 18, 7, -115, -36, 61, 12, -14, -121, 
4, 3, 66, -55, -23, -34, -4, 1, 23, 1, 15, -6, -9, -20, -25, 95, 
19, 5, -35, -106, 22, -106, -45, -69, 25, 40, -97, 39, 25, -127, 13, -12, 
63, -26, 27, -32, -53, -46, -16, -6, 35, 16, -2, 20, 19, -71, -18, 36, 
-62, -33, 15, -128, -21, -15, -15, -29, 43, 39, -109, 17, 27, -119, 4, 13, 
9, 6, 16, 37, -27, 26, -33, 65, 43, -10, 15, -37, 48, -18, 8, -29, 
-47, 35, -22, -50, 35, -128, -29, -4, 14, 3, -9, -65, 47, -5, -11, 15, 
-1, -64, -55, 45, -41, -21, -60, 59, 68, -28, 90, 79, 18, -75, 30, -8, 
52, 77, 12, 26, 27, -40, -34, -10, -62, 15, -30, 49, 100, 23, 28, 127, 
35, 1, -39, -97, 59, -47, -18, -42, 1, -9, 27, -36, -15, 24, 44, 72, 
-16, -36, 61, -46, -37, -27, -14, 28, 26, -8, 69, -128, 8, -23, -67, 10, 
-35, 12, -9, -78, 67, 25, 70, 7, -38, 0, 10, 23, 21, 127, 47, -80, 
66, -48, 81, -73, 16, -24, 38, 55, -16, 19, -8, 51, 5, -3, 49, 92, 
110, 82, -44, 63, -125, -24, -128, 56, 64, 68, 29, 90, 15, -98, 45, -39, 
88, -34, -22, 43, 88, -86, 7, 24, 1, 45, 84, 30, 54, 111, -72, -17, 
2, 9, -3, -47, -7, -20, 2, -58, 36, 12, 127, 18, -17, -4, 15, 37, 
41, -33, 31, -66, 2, -80, 73, 17, -40, -12, -32, -20, 56, -8, 22, 26, 

};
#endif
